%YAML:1.0
---
opencv_ml_svm:
   format: 3
   svmType: EPS_SVR
   kernel:
      type: RBF
      gamma: 2.
   C: 16384.
   p: 1.0000000000000001e-01
   term_criteria: { epsilon:1.1920928955078125e-07, iterations:1000 }
   var_count: 40
   sv_total: 98
   support_vectors:
      - [ 6.49777710e-01, 1.45080566e-01, 1.00395203e-01, 6.24338798e-02,
          3.12856026e-02, 8.98997020e-03, 1.99127197e-03, 4.57763672e-05,
          0., 0., 1.40159607e-01, 8.55293274e-01, 4.54711914e-03, 0., 0.,
          0., 0., 0., 0., 0., 3.02114636e-01, 1.92492887e-01,
          2.16325283e-01, 1.77476212e-01, 8.56042802e-02, 2.14808527e-02,
          4.44205711e-03, 6.37891717e-05, 0., 0., 1.37936905e-01,
          1.37863114e-01, 1.37820855e-01, 1.37737527e-01, 1.37518570e-01,
          1.36440441e-01, 1.31361276e-01, 4.33213040e-02, 0., 0. ]
      - [ 7.63466418e-01, 1.73093170e-01, 4.60098386e-02, 1.33449072e-02,
          3.07291676e-03, 8.82523134e-04, 1.27314808e-04, 2.89351851e-06,
          0., 0., 8.11255798e-02, 9.15159166e-01, 3.71527788e-03, 0., 0.,
          0., 0., 0., 0., 0., 3.90049279e-01, 3.32497239e-01,
          1.88969940e-01, 6.80147409e-02, 1.53584005e-02, 4.59291972e-03,
          5.05475095e-04, 1.19844753e-05, 0., 0., 1.55148521e-01,
          1.55079260e-01, 1.54832333e-01, 1.54014736e-01, 1.50278434e-01,
          1.39375955e-01, 8.69071931e-02, 4.36357828e-03, 0., 0. ]
      - [ 9.13981497e-01, 6.73437491e-02, 1.42071759e-02, 3.12500005e-03,
          1.03877310e-03, 2.77777785e-04, 2.60416673e-05, 0., 0., 0.,
          5.81597211e-03, 9.94184017e-01, 0., 0., 0., 0., 0., 0., 0., 0.,
          4.86606061e-01, 1.52333006e-01, 1.74419016e-01, 8.88693407e-02,
          7.26100206e-02, 2.29427032e-02, 2.21983553e-03, 0., 0., 0.,
          1.71964943e-01, 1.71728760e-01, 1.70781672e-01, 1.66650936e-01,
          1.56881213e-01, 1.26458645e-01, 3.55338342e-02, 0., 0., 0. ]
      - [ 8.44916105e-01, 1.18729748e-01, 2.72685178e-02, 6.75057853e-03,
          1.89236109e-03, 3.90625006e-04, 5.20833346e-05, 0., 0., 0.,
          1.13512734e-02, 9.88648713e-01, 0., 0., 0., 0., 0., 0., 0., 0.,
          4.70929503e-01, 1.79591909e-01, 1.47560313e-01, 1.09794557e-01,
          7.28333071e-02, 1.70062017e-02, 2.28421763e-03, 0., 0., 0.,
          1.64745733e-01, 1.64626583e-01, 1.64163217e-01, 1.62360117e-01,
          1.56495392e-01, 1.31182522e-01, 5.64264506e-02, 0., 0., 0. ]
      - [ 1.05133057e-01, 2.21974686e-01, 2.91007996e-01, 2.52268463e-01,
          1.09563194e-01, 1.92616787e-02, 7.88370788e-04, 2.54313159e-06,
          0., 0., 4.91274506e-01, 4.31589752e-01, 7.71179199e-02,
          1.78019200e-05, 0., 0., 0., 0., 0., 0., 7.38747269e-02,
          1.66779339e-01, 2.50026286e-01, 2.76977658e-01, 1.81127101e-01,
          5.01319580e-02, 1.08104479e-03, 1.87055730e-06, 0., 0.,
          1.44705549e-01, 1.44777969e-01, 1.44793436e-01, 1.44785807e-01,
          1.44711107e-01, 1.44095108e-01, 1.28538832e-01, 3.59219848e-03,
          0., 0. ]
      - [ 1.10524498e-01, 2.61655182e-01, 2.99898773e-01, 2.20403031e-01,
          8.99022445e-02, 1.66397095e-02, 9.71476256e-04, 5.08626317e-06,
          0., 0., 5.12339294e-01, 3.96982819e-01, 9.06448364e-02,
          3.30607108e-05, 0., 0., 0., 0., 0., 0., 7.88975284e-02,
          2.00390741e-01, 2.65071988e-01, 2.50769645e-01, 1.70276374e-01,
          3.37151140e-02, 8.74674937e-04, 3.94499875e-06, 0., 0.,
          1.43839389e-01, 1.43914536e-01, 1.43921539e-01, 1.43904239e-01,
          1.43809572e-01, 1.43109486e-01, 1.30532980e-01, 6.96824584e-03,
          0., 0. ]
      - [ 1.20849609e-01, 2.81626374e-01, 3.06111664e-01, 2.04716995e-01,
          7.54903182e-02, 1.08668013e-02, 3.38236481e-04, 0., 0., 0.,
          5.39703369e-01, 3.60015869e-01, 1.00196838e-01, 8.39233398e-05,
          0., 0., 0., 0., 0., 0., 7.87300095e-02, 2.02257857e-01,
          2.60430992e-01, 2.51112878e-01, 1.56115845e-01, 5.09333983e-02,
          4.19004209e-04, 0., 0., 0., 1.47820354e-01, 1.47890165e-01,
          1.47894368e-01, 1.47870451e-01, 1.47746965e-01, 1.46593675e-01,
          1.14184037e-01, 0., 0., 0. ]
      - [ 7.66532719e-01, 1.20705672e-01, 5.89502044e-02, 4.89175059e-02,
          4.58061462e-03, 3.13296739e-04, 0., 0., 0., 0., 3.32058556e-02,
          9.66794133e-01, 0., 0., 0., 0., 0., 0., 0., 0., 4.19643015e-01,
          1.08679809e-01, 1.06024377e-01, 3.02473038e-01, 5.84690981e-02,
          4.71064402e-03, 0., 0., 0., 0., 1.74436823e-01, 1.74315169e-01,
          1.74164146e-01, 1.74103677e-01, 1.70732304e-01, 1.32247880e-01,
          0., 0., 0., 0. ]
      - [ 8.03969920e-01, 1.10868059e-01, 4.55613434e-02, 2.18518525e-02,
          9.90162045e-03, 5.16203698e-03, 2.58391211e-03, 1.01273145e-04,
          0., 0., 8.35243091e-02, 9.13191557e-01, 3.28124990e-03,
          2.89351851e-06, 0., 0., 0., 0., 0., 0., 3.98980200e-01,
          2.22014189e-01, 1.79318368e-01, 1.09466396e-01, 5.85338399e-02,
          2.03511231e-02, 1.09423008e-02, 3.93567258e-04, 0., 0.,
          1.34588525e-01, 1.34483963e-01, 1.34310469e-01, 1.33992076e-01,
          1.33259431e-01, 1.32047221e-01, 1.29589990e-01, 6.77283481e-02,
          0., 0. ]
      - [ 7.65080750e-01, 1.27680466e-01, 5.82071953e-02, 2.54186001e-02,
          1.42288208e-02, 7.03684473e-03, 2.18963623e-03, 1.57674149e-04,
          0., 0., 1.24671936e-01, 8.66877258e-01, 8.45082570e-03, 0., 0.,
          0., 0., 0., 0., 0., 3.84647906e-01, 2.47533321e-01,
          2.08287179e-01, 9.37320516e-02, 4.15868945e-02, 1.80648621e-02,
          5.74813923e-03, 3.99647804e-04, 0., 0., 1.32596344e-01,
          1.32509902e-01, 1.32386237e-01, 1.32094011e-01, 1.31688178e-01,
          1.30755529e-01, 1.26821771e-01, 8.11480284e-02, 0., 0. ]
      - [ 7.68079102e-01, 1.28926590e-01, 5.65363578e-02, 2.51744594e-02,
          1.31734209e-02, 6.08571386e-03, 1.91497803e-03, 1.09354653e-04,
          0., 0., 1.19366966e-01, 8.72741699e-01, 7.89133739e-03, 0., 0.,
          0., 0., 0., 0., 0., 3.84886384e-01, 2.51922905e-01,
          2.05281183e-01, 9.51359048e-02, 3.99593301e-02, 1.68454573e-02,
          5.68078225e-03, 2.88037380e-04, 0., 0., 1.34348020e-01,
          1.34261385e-01, 1.34128273e-01, 1.33833885e-01, 1.33353218e-01,
          1.32193327e-01, 1.27697185e-01, 7.01847076e-02, 0., 0. ]
      - [ 7.64394104e-01, 1.27487183e-01, 5.92371635e-02, 2.57263184e-02,
          1.41042070e-02, 6.83848048e-03, 2.07773852e-03, 1.34785965e-04,
          0., 0., 1.25376388e-01, 8.65816772e-01, 8.80686473e-03, 0., 0.,
          0., 0., 0., 0., 0., 3.83166134e-01, 2.48529762e-01,
          2.08678678e-01, 9.41569880e-02, 4.20001969e-02, 1.76216289e-02,
          5.51608298e-03, 3.30517301e-04, 0., 0., 1.33311689e-01,
          1.33224621e-01, 1.33104429e-01, 1.32812873e-01, 1.32390469e-01,
          1.31407544e-01, 1.27206758e-01, 7.65416101e-02, 0., 0. ]
      - [ 1.36611938e-01, 2.65026867e-01, 2.88415521e-01, 2.03921512e-01,
          8.66241455e-02, 1.78497322e-02, 1.52893062e-03, 2.13623043e-05,
          0., 0., 4.75817859e-01, 4.50402826e-01, 7.37640411e-02,
          1.52587891e-05, 0., 0., 0., 0., 0., 0., 1.01861902e-01,
          2.16198787e-01, 2.70420462e-01, 2.27027982e-01, 1.32425159e-01,
          5.04249707e-02, 1.62570924e-03, 1.50313135e-05, 0., 0.,
          1.40623972e-01, 1.40673831e-01, 1.40678138e-01, 1.40657932e-01,
          1.40564635e-01, 1.39942899e-01, 1.32087693e-01, 2.47708801e-02,
          0., 0. ]
      - [ 1.61785886e-01, 3.03237915e-01, 2.71719366e-01, 1.71554565e-01,
          7.34893829e-02, 1.63848884e-02, 1.78527832e-03, 4.27246086e-05,
          0., 0., 4.76190180e-01, 4.40917969e-01, 8.28704834e-02,
          2.13623043e-05, 0., 0., 0., 0., 0., 0., 1.23128265e-01,
          2.55646467e-01, 2.65208811e-01, 1.98329657e-01, 1.28972098e-01,
          2.70847399e-02, 1.59993244e-03, 3.00341871e-05, 0., 0.,
          1.38093740e-01, 1.38133541e-01, 1.38128266e-01, 1.38098598e-01,
          1.37991324e-01, 1.37340888e-01, 1.30849719e-01, 4.13639098e-02,
          0., 0. ]
      - [ 9.23423052e-01, 6.77141175e-02, 8.79050884e-03, 7.23379635e-05,
          0., 0., 0., 0., 0., 0., 7.13252323e-03, 9.92867470e-01, 0., 0.,
          0., 0., 0., 0., 0., 0., 4.93038505e-01, 3.24693412e-01,
          1.82231382e-01, 3.66805689e-05, 0., 0., 0., 0., 0., 0.,
          2.93488979e-01, 2.93087929e-01, 2.90219247e-01, 1.23203814e-01,
          0., 0., 0., 0., 0., 0. ]
      - [ 1.45337284e-01, 2.73810565e-01, 2.90145189e-01, 1.97711855e-01,
          7.78092295e-02, 1.40983537e-02, 1.07673253e-03, 1.08033364e-05,
          0., 0., 4.88955379e-01, 4.31852549e-01, 7.90948272e-02,
          9.72300259e-05, 0., 0., 0., 0., 0., 0., 9.62431729e-02,
          1.98620543e-01, 2.43755832e-01, 2.02994004e-01, 1.74835443e-01,
          8.25532228e-02, 9.90611967e-04, 7.16369777e-06, 0., 0.,
          1.42712235e-01, 1.42758295e-01, 1.42761230e-01, 1.42738238e-01,
          1.42627120e-01, 1.41804606e-01, 1.30674243e-01, 1.39240306e-02,
          0., 0. ]
      - [ 6.43842578e-01, 1.73556134e-01, 1.00630790e-01, 5.05758114e-02,
          1.87181719e-02, 8.51562526e-03, 3.99305578e-03, 1.67824081e-04,
          0., 0., 1.90176502e-01, 7.93949664e-01, 1.58709493e-02,
          2.89351851e-06, 0., 0., 0., 0., 0., 0., 3.45988393e-01,
          2.50275820e-01, 2.25074217e-01, 1.19791672e-01, 3.70542891e-02,
          1.46998530e-02, 6.87358761e-03, 2.42182272e-04, 0., 0.,
          1.31878302e-01, 1.31822839e-01, 1.31767839e-01, 1.31638512e-01,
          1.31197870e-01, 1.30367860e-01, 1.28676280e-01, 8.26504901e-02,
          0., 0. ]
      - [ 7.64951050e-01, 1.64952591e-01, 4.33731079e-02, 1.74153652e-02,
          7.19451904e-03, 1.79036462e-03, 3.15348298e-04, 7.62939453e-06,
          0., 0., 1.20910645e-01, 8.74590576e-01, 4.49879980e-03, 0., 0.,
          0., 0., 0., 0., 0., 4.10584092e-01, 3.61913145e-01,
          1.47899240e-01, 5.07573001e-02, 2.26139296e-02, 5.36015583e-03,
          8.50941986e-04, 2.11758961e-05, 0., 0., 1.48024201e-01,
          1.47953853e-01, 1.47703007e-01, 1.47198334e-01, 1.46014035e-01,
          1.40212074e-01, 1.12400323e-01, 1.04941837e-02, 0., 0. ]
      - [ 7.39013672e-01, 1.86024979e-01, 5.34846000e-02, 1.51418047e-02,
          4.78617335e-03, 1.42415368e-03, 1.24613449e-04, 0., 0., 0.,
          4.16793823e-02, 9.58315551e-01, 5.08626317e-06, 0., 0., 0., 0.,
          0., 0., 0., 4.35639530e-01, 2.00041980e-01, 2.01470599e-01,
          9.37713310e-02, 5.09573780e-02, 1.66613348e-02, 1.45786686e-03,
          0., 0., 0., 1.54787049e-01, 1.54724821e-01, 1.54519081e-01,
          1.53792307e-01, 1.51639700e-01, 1.44651011e-01, 8.58860314e-02,
          0., 0., 0. ]
      - [ 8.21917236e-01, 1.30495712e-01, 3.59166451e-02, 8.21431447e-03,
          2.63977051e-03, 7.47680664e-04, 6.86645508e-05, 0., 0., 0.,
          2.36587524e-02, 9.76341248e-01, 0., 0., 0., 0., 0., 0., 0., 0.,
          4.56164211e-01, 1.57969117e-01, 2.30160341e-01, 8.90429989e-02,
          4.94463332e-02, 1.57688390e-02, 1.44815876e-03, 0., 0., 0.,
          1.60315335e-01, 1.60212070e-01, 1.59889668e-01, 1.58406422e-01,
          1.54482722e-01, 1.41420305e-01, 6.52734637e-02, 0., 0., 0. ]
      - [ 8.36781800e-01, 1.27527878e-01, 3.08202114e-02, 4.02323389e-03,
          7.57853210e-04, 8.90096053e-05, 0., 0., 0., 0., 1.36947632e-02,
          9.86305237e-01, 0., 0., 0., 0., 0., 0., 0., 0., 4.59565818e-01,
          1.35488257e-01, 3.06136072e-01, 7.00084493e-02, 2.55632810e-02,
          3.23811080e-03, 0., 0., 0., 0., 1.87736914e-01, 1.87612236e-01,
          1.87152117e-01, 1.83205664e-01, 1.65872231e-01, 8.84208307e-02,
          0., 0., 0., 0. ]
      - [ 8.27888489e-01, 1.29898071e-01, 3.32412720e-02, 6.77744532e-03,
          1.81070960e-03, 3.50952148e-04, 3.30607108e-05, 0., 0., 0.,
          2.00017300e-02, 9.79998291e-01, 0., 0., 0., 0., 0., 0., 0., 0.,
          4.57526684e-01, 1.53213724e-01, 2.49069750e-01, 8.90633166e-02,
          4.15504910e-02, 8.75161681e-03, 8.24427640e-04, 0., 0., 0.,
          1.67879209e-01, 1.67770341e-01, 1.67395920e-01, 1.65458187e-01,
          1.59112200e-01, 1.30667269e-01, 4.17168699e-02, 0., 0., 0. ]
      - [ 8.88854980e-01, 6.53839111e-02, 3.11813354e-02, 9.97161865e-03,
          3.66210938e-03, 9.15527344e-04, 3.05175781e-05, 0., 0., 0.,
          2.57898960e-02, 9.74210083e-01, 0., 0., 0., 0., 0., 0., 0., 0.,
          4.98105913e-01, 1.20997943e-01, 2.23458901e-01, 8.54628533e-02,
          5.36675528e-02, 1.77162942e-02, 5.90543146e-04, 0., 0., 0.,
          1.64077297e-01, 1.63845167e-01, 1.63571179e-01, 1.62466481e-01,
          1.59733966e-01, 1.47937089e-01, 3.83688174e-02, 0., 0., 0. ]
      - [ 9.05614197e-01, 5.41203804e-02, 2.83635464e-02, 8.17616750e-03,
          2.84576416e-03, 8.46862793e-04, 3.30607108e-05, 0., 0., 0.,
          2.22930908e-02, 9.77706909e-01, 0., 0., 0., 0., 0., 0., 0., 0.,
          5.02293229e-01, 1.13989495e-01, 2.35921979e-01, 8.08216110e-02,
          4.72815000e-02, 1.89523064e-02, 7.39879848e-04, 0., 0., 0.,
          1.64149001e-01, 1.63864344e-01, 1.63590357e-01, 1.62183508e-01,
          1.58594131e-01, 1.46829113e-01, 4.07895148e-02, 0., 0., 0. ]
      - [ 1.83010861e-01, 2.34313965e-01, 2.25985721e-01, 1.78799435e-01,
          1.18914798e-01, 4.76287827e-02, 1.09497067e-02, 3.96728516e-04,
          0., 0., 4.90801990e-01, 4.76586908e-01, 3.25988755e-02,
          1.22070314e-05, 0., 0., 0., 0., 0., 0., 1.37318105e-01,
          2.04161420e-01, 2.27876738e-01, 2.17677683e-01, 1.44514173e-01,
          5.91886640e-02, 9.00033396e-03, 2.62877787e-04, 0., 0.,
          1.28386557e-01, 1.28401920e-01, 1.28399894e-01, 1.28384918e-01,
          1.28348783e-01, 1.28187582e-01, 1.27294183e-01, 1.02596171e-01,
          0., 0. ]
      - [ 4.53321755e-01, 4.05581594e-01, 1.11119792e-01, 2.41898149e-02,
          4.73090261e-03, 9.17245343e-04, 1.30208340e-04, 8.68055577e-06,
          0., 0., 2.88695037e-01, 6.64120376e-01, 4.71846052e-02, 0., 0.,
          0., 0., 0., 0., 0., 3.05349857e-01, 4.54325169e-01,
          1.90891430e-01, 4.09022085e-02, 7.11710751e-03, 1.24042528e-03,
          1.65672973e-04, 8.13869337e-06, 0., 0., 1.53317004e-01,
          1.53313026e-01, 1.53212950e-01, 1.52719483e-01, 1.50176451e-01,
          1.38275713e-01, 8.67368951e-02, 1.22484686e-02, 0., 0. ]
      - [ 2.48703003e-01, 3.57208252e-01, 2.35178635e-01, 1.14423119e-01,
          3.57742310e-02, 7.41831446e-03, 1.24867761e-03, 4.57763672e-05,
          0., 0., 4.39435333e-01, 4.81224060e-01, 7.93355331e-02,
          5.08626317e-06, 0., 0., 0., 0., 0., 0., 1.86799899e-01,
          3.27706635e-01, 2.65774399e-01, 1.57946259e-01, 5.33575453e-02,
          7.46871578e-03, 9.13195079e-04, 3.33591342e-05, 0., 0.,
          1.38413921e-01, 1.38430834e-01, 1.38410732e-01, 1.38348669e-01,
          1.38083592e-01, 1.36627823e-01, 1.28202513e-01, 4.34819087e-02,
          0., 0. ]
      - [ 3.12014252e-01, 4.03879791e-01, 1.95368454e-01, 6.59510270e-02,
          1.79011021e-02, 4.02577734e-03, 8.34147155e-04, 2.54313145e-05,
          0., 0., 3.84140015e-01, 5.44509888e-01, 7.13450089e-02,
          5.08626317e-06, 0., 0., 0., 0., 0., 0., 2.25621685e-01,
          3.87536287e-01, 2.49963030e-01, 9.37478319e-02, 3.85242738e-02,
          3.92320892e-03, 6.66430453e-04, 1.72467717e-05, 0., 0.,
          1.41531229e-01, 1.41541541e-01, 1.41504154e-01, 1.41362235e-01,
          1.40790105e-01, 1.38145074e-01, 1.26420885e-01, 2.87047829e-02,
          0., 0. ]
      - [ 3.38452667e-01, 4.02946472e-01, 1.87118530e-01, 5.58624268e-02,
          1.26851397e-02, 2.65248609e-03, 2.82287598e-04, 0., 0., 0.,
          3.63454193e-01, 5.68379700e-01, 6.81660995e-02, 0., 0., 0., 0.,
          0., 0., 0., 2.44374186e-01, 3.99930567e-01, 2.53725022e-01,
          8.31409097e-02, 1.60156637e-02, 2.57147243e-03, 2.42165930e-04,
          0., 0., 0., 1.49401411e-01, 1.49408475e-01, 1.49365738e-01,
          1.49178505e-01, 1.48276657e-01, 1.44016087e-01, 1.10353120e-01,
          0., 0., 0. ]
      - [ 6.37545586e-01, 1.77586839e-01, 8.49171057e-02, 5.12287542e-02,
          3.01941633e-02, 1.49407554e-02, 3.39865265e-03, 1.88170714e-04,
          0., 0., 1.57200709e-01, 8.38810086e-01, 3.98921920e-03, 0., 0.,
          0., 0., 0., 0., 0., 3.58421087e-01, 1.73721656e-01,
          1.67025715e-01, 1.47563294e-01, 9.52553600e-02, 4.69947308e-02,
          1.06662912e-02, 3.51862895e-04, 0., 0., 1.31374955e-01,
          1.31321609e-01, 1.31241009e-01, 1.31139562e-01, 1.30961820e-01,
          1.30521953e-01, 1.27639949e-01, 8.57991278e-02, 0., 0. ]
      - [ 6.69901609e-01, 1.72045723e-01, 7.61921331e-02, 4.34809029e-02,
          2.43663192e-02, 1.16174771e-02, 2.24826392e-03, 1.47569444e-04,
          0., 0., 1.36232644e-01, 8.60167801e-01, 3.59953707e-03, 0., 0.,
          0., 0., 0., 0., 0., 3.75707626e-01, 1.75287306e-01,
          1.75629124e-01, 1.47076130e-01, 7.91577548e-02, 3.86619344e-02,
          8.12797993e-03, 3.52173229e-04, 0., 0., 1.32667229e-01,
          1.32609963e-01, 1.32513121e-01, 1.32382572e-01, 1.32144704e-01,
          1.31554648e-01, 1.27036601e-01, 7.90911540e-02, 0., 0. ]
      - [ 7.16463745e-01, 1.59281418e-01, 7.12916031e-02, 3.10185757e-02,
          1.54444380e-02, 5.27445460e-03, 1.22578943e-03, 0., 0., 0.,
          1.04187012e-01, 8.95812988e-01, 0., 0., 0., 0., 0., 0., 0., 0.,
          4.86020386e-01, 1.90763339e-01, 1.45177245e-01, 8.67614374e-02,
          6.02250770e-02, 2.51723565e-02, 5.88014675e-03, 0., 0., 0.,
          1.45030215e-01, 1.44959450e-01, 1.44847289e-01, 1.44584343e-01,
          1.44117326e-01, 1.42351583e-01, 1.34109780e-01, 0., 0., 0. ]
      - [ 9.05286431e-01, 6.25347197e-02, 2.47627310e-02, 7.11226836e-03,
          3.03819455e-04, 0., 0., 0., 0., 0., 1.00057870e-02,
          9.89994228e-01, 0., 0., 0., 0., 0., 0., 0., 0., 4.67016220e-01,
          5.63761033e-02, 2.59510517e-01, 2.04553127e-01, 1.25440471e-02,
          0., 0., 0., 0., 0., 2.11269408e-01, 2.10955396e-01,
          2.10442901e-01, 2.08363116e-01, 1.58969179e-01, 0., 0., 0., 0.,
          0. ]
      - [ 8.77653360e-01, 7.39814788e-02, 3.51851843e-02, 1.13917822e-02,
          1.77372689e-03, 1.44675923e-05, 0., 0., 0., 0., 1.51475696e-02,
          9.84852433e-01, 0., 0., 0., 0., 0., 0., 0., 0., 4.57048267e-01,
          7.52662048e-02, 2.25528181e-01, 1.88477769e-01, 5.32035492e-02,
          4.76008019e-04, 0., 0., 0., 0., 1.97605118e-01, 1.97360873e-01,
          1.97067544e-01, 1.95907906e-01, 1.87080339e-01, 2.49782149e-02,
          0., 0., 0., 0. ]
      - [ 8.81562471e-01, 7.34751150e-02, 3.43981497e-02, 9.46759246e-03,
          1.09664351e-03, 0., 0., 0., 0., 0., 1.30468747e-02,
          9.86953139e-01, 0., 0., 0., 0., 0., 0., 0., 0., 4.55811501e-01,
          6.95184842e-02, 2.67538548e-01, 1.68859750e-01, 3.82717326e-02,
          0., 0., 0., 0., 0., 2.03991473e-01, 2.03737319e-01,
          2.03423232e-01, 2.01882258e-01, 1.86965704e-01, 0., 0., 0., 0.,
          0. ]
      - [ 1.23819448e-01, 1.57786459e-01, 2.78139472e-01, 3.14537048e-01,
          1.11148730e-01, 1.41637735e-02, 4.05092578e-04, 0., 0., 0.,
          3.95072341e-01, 5.64800322e-01, 4.01273146e-02, 0., 0., 0., 0.,
          0., 0., 0., 9.07148048e-02, 1.27704218e-01, 2.55384564e-01,
          3.58318716e-01, 1.48879379e-01, 1.85511038e-02, 4.47223923e-04,
          0., 0., 0., 1.47113457e-01, 1.47139013e-01, 1.47179350e-01,
          1.47185475e-01, 1.47099927e-01, 1.46200061e-01, 1.18082710e-01,
          0., 0., 0. ]
      - [ 1.24927662e-01, 1.58703700e-01, 2.79247671e-01, 3.12502891e-01,
          1.10040508e-01, 1.41840279e-02, 3.93518509e-04, 0., 0., 0.,
          3.86249989e-01, 5.75951993e-01, 3.77980322e-02, 0., 0., 0., 0.,
          0., 0., 0., 9.15704742e-02, 1.29482687e-01, 2.59138584e-01,
          3.53947490e-01, 1.46597132e-01, 1.87664889e-02, 4.97150701e-04,
          0., 0., 0., 1.47214904e-01, 1.47239968e-01, 1.47280008e-01,
          1.47285625e-01, 1.47198975e-01, 1.46301299e-01, 1.17479213e-01,
          0., 0., 0. ]
      - [ 9.04137716e-02, 2.33721063e-01, 3.14592004e-01, 2.54305542e-01,
          9.39843729e-02, 1.26215275e-02, 3.61689803e-04, 0., 0., 0.,
          4.84618068e-01, 4.30037618e-01, 8.53443295e-02, 0., 0., 0., 0.,
          0., 0., 0., 6.83490336e-02, 1.90673470e-01, 2.96364725e-01,
          2.94514000e-01, 1.31174758e-01, 1.84826814e-02, 4.41331271e-04,
          0., 0., 0., 1.47498548e-01, 1.47598535e-01, 1.47614762e-01,
          1.47603646e-01, 1.47504747e-01, 1.46500960e-01, 1.15678810e-01,
          0., 0., 0. ]
      - [ 8.43956590e-01, 9.89451781e-02, 4.35400419e-02, 1.28258532e-02,
          7.32330023e-04, 0., 0., 0., 0., 0., 1.43946521e-02,
          9.85605359e-01, 0., 0., 0., 0., 0., 0., 0., 0., 4.68099773e-01,
          9.19581950e-02, 2.89703220e-01, 1.25575453e-01, 2.46633422e-02,
          0., 0., 0., 0., 0., 2.05369338e-01, 2.05186293e-01,
          2.04923004e-01, 2.03804657e-01, 1.80716708e-01, 0., 0., 0., 0.,
          0. ]
      - [ 3.97141099e-01, 2.78206885e-01, 1.59153685e-01, 9.25728679e-02,
          5.04551753e-02, 1.70320161e-02, 5.33146970e-03, 1.06812498e-04,
          0., 0., 1.69493124e-01, 8.29011500e-01, 1.49537507e-03, 0., 0.,
          0., 0., 0., 0., 0., 1.96706489e-01, 2.16915041e-01,
          2.03304917e-01, 2.09942013e-01, 1.25512287e-01, 3.72796841e-02,
          1.01592233e-02, 1.80350384e-04, 0., 0., 1.33514717e-01,
          1.33500338e-01, 1.33464471e-01, 1.33404225e-01, 1.33284166e-01,
          1.32768810e-01, 1.31089538e-01, 6.89737350e-02, 0., 0. ]
      - [ 7.72771180e-01, 1.26093552e-01, 6.11826591e-02, 2.85135899e-02,
          9.19850636e-03, 2.01161695e-03, 2.28881836e-04, 0., 0., 0.,
          7.71484375e-02, 9.17760193e-01, 5.09134913e-03, 0., 0., 0., 0.,
          0., 0., 0., 3.58712941e-01, 1.80733144e-01, 2.10345209e-01,
          1.69099078e-01, 7.06334040e-02, 9.53235012e-03, 9.43894906e-04,
          0., 0., 0., 1.50769576e-01, 1.50669605e-01, 1.50543034e-01,
          1.50262102e-01, 1.49167448e-01, 1.43648162e-01, 1.04940072e-01,
          0., 0., 0. ]
      - [ 7.71573365e-01, 1.25284836e-01, 6.18006401e-02, 2.90603638e-02,
          9.78088379e-03, 2.20743823e-03, 2.92460114e-04, 0., 0., 0.,
          7.88574219e-02, 9.16013062e-01, 5.12949610e-03, 0., 0., 0., 0.,
          0., 0., 0., 3.58952671e-01, 1.78760499e-01, 2.08106890e-01,
          1.70449406e-01, 7.19470009e-02, 1.06095150e-02, 1.17401930e-03,
          0., 0., 0., 1.49552107e-01, 1.49452195e-01, 1.49329856e-01,
          1.49058551e-01, 1.48057744e-01, 1.43089339e-01, 1.11460224e-01,
          0., 0., 0. ]
      - [ 8.91789734e-01, 6.83186874e-02, 2.71046963e-02, 9.67661571e-03,
          2.58382154e-03, 4.78108734e-04, 4.83194999e-05, 0., 0., 0.,
          2.53804531e-02, 9.74614441e-01, 5.08626317e-06, 0., 0., 0., 0.,
          0., 0., 0., 5.00591993e-01, 2.29974419e-01, 1.28231123e-01,
          9.55206081e-02, 3.55760045e-02, 9.17823706e-03, 9.27587738e-04,
          0., 0., 0., 1.63914338e-01, 1.63693115e-01, 1.63330123e-01,
          1.62255928e-01, 1.57824531e-01, 1.35575995e-01, 5.34059703e-02,
          0., 0., 0. ]
      - [ 8.77578735e-01, 7.84861222e-02, 2.81372070e-02, 1.19374590e-02,
          3.11787915e-03, 6.61214173e-04, 8.13802108e-05, 0., 0., 0.,
          3.17230225e-02, 9.68271911e-01, 5.08626317e-06, 0., 0., 0., 0.,
          0., 0., 0., 5.14654756e-01, 2.25908607e-01, 1.28978863e-01,
          8.33859444e-02, 3.56996655e-02, 1.01217590e-02, 1.25040615e-03,
          0., 0., 0., 1.59395412e-01, 1.59210727e-01, 1.58849031e-01,
          1.58089265e-01, 1.54459581e-01, 1.38471574e-01, 7.15243965e-02,
          0., 0., 0. ]
      - [ 1.16577148e-01, 2.08188370e-01, 2.76624054e-01, 2.61698395e-01,
          1.17502846e-01, 1.88929234e-02, 5.13712585e-04, 2.54313159e-06,
          0., 0., 5.35240173e-01, 3.76645416e-01, 8.80839005e-02,
          3.05175781e-05, 0., 0., 0., 0., 0., 0., 7.54097402e-02,
          1.44743338e-01, 2.26178706e-01, 2.85717726e-01, 2.00082749e-01,
          6.70678690e-02, 7.97780871e-04, 2.08842130e-06, 0., 0.,
          1.45782351e-01, 1.45837352e-01, 1.45854682e-01, 1.45851672e-01,
          1.45783335e-01, 1.45139188e-01, 1.22132853e-01, 3.61859147e-03,
          0., 0. ]
      - [ 9.76003036e-02, 2.44715378e-01, 3.05516571e-01, 2.41434738e-01,
          9.57565308e-02, 1.45467119e-02, 4.29789216e-04, 0., 0., 0.,
          5.15858948e-01, 3.91349792e-01, 9.27810669e-02, 1.01725263e-05,
          0., 0., 0., 0., 0., 0., 7.09455535e-02, 1.90822080e-01,
          2.78951675e-01, 2.73710757e-01, 1.48826405e-01, 3.62758264e-02,
          4.67719685e-04, 0., 0., 0., 1.46882340e-01, 1.46972775e-01,
          1.46984726e-01, 1.46971971e-01, 1.46879449e-01, 1.46028981e-01,
          1.19279757e-01, 0., 0., 0. ]
      - [ 1.36243179e-01, 3.15060943e-01, 3.04428101e-01, 1.76706955e-01,
          5.79020195e-02, 9.14764404e-03, 4.98453795e-04, 1.27156572e-05,
          0., 0., 5.11917114e-01, 3.86032104e-01, 1.02002464e-01,
          4.83194999e-05, 0., 0., 0., 0., 0., 0., 9.63562876e-02,
          2.46697322e-01, 2.83158183e-01, 2.14610890e-01, 1.42586067e-01,
          1.61382630e-02, 4.44039644e-04, 8.93176639e-06, 0., 0.,
          1.44168675e-01, 1.44228712e-01, 1.44227117e-01, 1.44192889e-01,
          1.44025758e-01, 1.42714366e-01, 1.20166615e-01, 1.62758660e-02,
          0., 0. ]
      - [ 8.88842285e-01, 8.52559432e-02, 2.04315186e-02, 4.98453761e-03,
          4.73022461e-04, 1.27156572e-05, 0., 0., 0., 0., 3.13949585e-02,
          9.64525878e-01, 4.07918310e-03, 0., 0., 0., 0., 0., 0., 0.,
          4.15988743e-01, 2.74817437e-01, 2.27686435e-01, 7.49758556e-02,
          6.09321706e-03, 4.38330957e-04, 0., 0., 0., 0., 2.03540415e-01,
          2.03324825e-01, 2.02571854e-01, 1.99559733e-01, 1.68038830e-01,
          2.29643472e-02, 0., 0., 0., 0. ]
      - [ 9.09103394e-01, 6.83949813e-02, 1.58081055e-02, 5.70424413e-03,
          9.63846862e-04, 2.54313145e-05, 0., 0., 0., 0., 1.71356201e-02,
          9.80194092e-01, 2.66774488e-03, 2.54313159e-06, 0., 0., 0., 0.,
          0., 0., 3.88963521e-01, 2.05178276e-01, 2.13438511e-01,
          1.54213190e-01, 3.77934389e-02, 4.13075497e-04, 0., 0., 0., 0.,
          1.96686745e-01, 1.96421191e-01, 1.95471853e-01, 1.93319336e-01,
          1.78218082e-01, 3.98828052e-02, 0., 0., 0., 0. ]
      - [ 9.32530701e-01, 5.68364449e-02, 8.88824463e-03, 1.55385339e-03,
          1.88191727e-04, 2.54313159e-06, 0., 0., 0., 0., 2.68046069e-03,
          9.97075379e-01, 2.44140625e-04, 0., 0., 0., 0., 0., 0., 0.,
          4.36846703e-01, 2.96329111e-01, 1.60336450e-01, 8.35571662e-02,
          2.25884300e-02, 3.42133309e-04, 0., 0., 0., 0., 2.17162386e-01,
          2.16804221e-01, 2.14769334e-01, 2.04053566e-01, 1.41824156e-01,
          5.38633578e-03, 0., 0., 0., 0. ]
      - [ 1.05771385e-01, 2.30153397e-01, 2.85003662e-01, 2.42037460e-01,
          1.14069618e-01, 2.19904575e-02, 9.66389955e-04, 7.62939453e-06,
          0., 0., 5.61770141e-01, 3.46107483e-01, 9.19748917e-02,
          1.47501632e-04, 0., 0., 0., 0., 0., 0., 6.03033863e-02,
          1.45370051e-01, 2.12939218e-01, 2.40856230e-01, 2.18584642e-01,
          1.17724665e-01, 4.21568193e-03, 6.13092607e-06, 0., 0.,
          1.43345430e-01, 1.43418640e-01, 1.43430635e-01, 1.43421695e-01,
          1.43355280e-01, 1.42831445e-01, 1.30026117e-01, 1.01707606e-02,
          0., 0. ]
      - [ 1.05316162e-01, 2.33474731e-01, 2.87971497e-01, 2.39067078e-01,
          1.10855103e-01, 2.21176147e-02, 1.18509925e-03, 1.27156572e-05,
          0., 0., 5.45026124e-01, 3.65732819e-01, 8.91443864e-02,
          9.66389998e-05, 0., 0., 0., 0., 0., 0., 6.43945634e-02,
          1.54182762e-01, 2.24188194e-01, 2.40724966e-01, 2.05366626e-01,
          1.09712802e-01, 1.42078486e-03, 9.30454189e-06, 0., 0.,
          1.42164081e-01, 1.42238155e-01, 1.42249674e-01, 1.42239571e-01,
          1.42170832e-01, 1.41658589e-01, 1.31226078e-01, 1.60530172e-02,
          0., 0. ]
      - [ 1.00652061e-01, 2.36325577e-01, 2.95420319e-01, 2.38670349e-01,
          1.07683815e-01, 2.02941895e-02, 9.43501771e-04, 1.01725263e-05,
          0., 0., 5.32915771e-01, 3.77225250e-01, 8.97954330e-02,
          6.35782853e-05, 0., 0., 0., 0., 0., 0., 6.45171329e-02,
          1.63699672e-01, 2.39426866e-01, 2.51671433e-01, 2.00176477e-01,
          7.93575123e-02, 1.14295108e-03, 7.95946835e-06, 0., 0.,
          1.42950252e-01, 1.43031746e-01, 1.43043846e-01, 1.43032342e-01,
          1.42959505e-01, 1.42390639e-01, 1.29379570e-01, 1.32120950e-02,
          0., 0. ]
      - [ 1.05824791e-01, 2.56584167e-01, 2.97620147e-01, 2.22429916e-01,
          9.65754166e-02, 1.95821133e-02, 1.35803223e-03, 2.54313145e-05,
          0., 0., 5.51244080e-01, 3.52546692e-01, 9.60820541e-02,
          1.27156571e-04, 0., 0., 0., 0., 0., 0., 6.64594397e-02,
          1.73846483e-01, 2.37804234e-01, 2.39393517e-01, 2.19994634e-01,
          6.12478741e-02, 1.23428344e-03, 1.95366301e-05, 0., 0.,
          1.40200049e-01, 1.40277863e-01, 1.40285403e-01, 1.40269473e-01,
          1.40187383e-01, 1.39619544e-01, 1.30707741e-01, 2.84525510e-02,
          0., 0. ]
      - [ 8.05173635e-01, 1.07771993e-01, 4.61255796e-02, 2.23061349e-02,
          1.02806715e-02, 5.50347241e-03, 2.72280094e-03, 1.15740739e-04,
          0., 0., 8.44618082e-02, 9.12552059e-01, 2.98321759e-03,
          2.89351851e-06, 0., 0., 0., 0., 0., 0., 3.98392707e-01,
          2.15229824e-01, 1.84416324e-01, 1.05290435e-01, 5.29202260e-02,
          3.18935774e-02, 1.14309108e-02, 4.25985694e-04, 0., 0.,
          1.33925721e-01, 1.33818194e-01, 1.33652598e-01, 1.33344561e-01,
          1.32652059e-01, 1.31552011e-01, 1.29197344e-01, 7.18574896e-02,
          0., 0. ]
      - [ 8.08200240e-01, 1.06765047e-01, 4.54224534e-02, 2.18692124e-02,
          9.96527821e-03, 5.09548606e-03, 2.60706013e-03, 7.52314809e-05,
          0., 0., 8.35995376e-02, 9.13327575e-01, 3.07002314e-03,
          2.89351851e-06, 0., 0., 0., 0., 0., 0., 4.05568302e-01,
          2.11119205e-01, 1.86327159e-01, 1.04372539e-01, 5.09210341e-02,
          3.06159370e-02, 1.08071705e-02, 2.68630160e-04, 0., 0.,
          1.35937810e-01, 1.35827407e-01, 1.35655969e-01, 1.35335788e-01,
          1.34603903e-01, 1.33337840e-01, 1.30932406e-01, 5.83688952e-02,
          0., 0. ]
      - [ 1.58320114e-01, 1.13385521e-01, 2.63369232e-01, 3.38386536e-01,
          1.12528481e-01, 1.36464434e-02, 3.63667816e-04, 0., 0., 0.,
          3.73148590e-01, 5.93521118e-01, 3.33302803e-02, 0., 0., 0., 0.,
          0., 0., 0., 1.17544018e-01, 9.06224549e-02, 2.37074807e-01,
          3.92501503e-01, 1.45756304e-01, 1.61896516e-02, 3.11243202e-04,
          0., 0., 0., 1.47530556e-01, 1.47493646e-01, 1.47567704e-01,
          1.47580117e-01, 1.47492662e-01, 1.46549836e-01, 1.15785480e-01,
          0., 0., 0. ]
      - [ 8.73133317e-02, 2.24955246e-01, 3.11167389e-01, 2.62903839e-01,
          9.95356217e-02, 1.37227373e-02, 4.01814788e-04, 0., 0., 0.,
          4.76430267e-01, 4.43316132e-01, 8.02536011e-02, 0., 0., 0., 0.,
          0., 0., 0., 6.52719736e-02, 1.83323845e-01, 2.89920121e-01,
          3.02356154e-01, 1.38523489e-01, 2.01822575e-02, 4.22165263e-04,
          0., 0., 0., 1.47102684e-01, 1.47205725e-01, 1.47223860e-01,
          1.47215173e-01, 1.47123352e-01, 1.46205738e-01, 1.17923453e-01,
          0., 0., 0. ]
      - [ 1.20112844e-01, 2.93090284e-01, 3.13246518e-01, 1.97647572e-01,
          6.62442148e-02, 9.25925933e-03, 3.96412041e-04, 2.89351851e-06,
          0., 0., 5.22980332e-01, 3.74461800e-01, 1.02485530e-01,
          7.23379635e-05, 0., 0., 0., 0., 0., 0., 8.16089287e-02,
          2.17761204e-01, 2.73630708e-01, 2.35450342e-01, 1.65295735e-01,
          2.58994736e-02, 3.51339695e-04, 2.25990971e-06, 0., 0.,
          1.46667182e-01, 1.46739215e-01, 1.46742448e-01, 1.46715060e-01,
          1.46568030e-01, 1.45220906e-01, 1.17219239e-01, 4.12793271e-03,
          0., 0. ]
      - [ 1.28188655e-01, 2.97349542e-01, 3.11880797e-01, 1.89354748e-01,
          6.31597191e-02, 9.62962955e-03, 4.31134249e-04, 5.78703703e-06,
          0., 0., 5.18425941e-01, 3.78689229e-01, 1.02829859e-01,
          5.49768520e-05, 0., 0., 0., 0., 0., 0., 8.94915760e-02,
          2.26846620e-01, 2.79466182e-01, 2.35307842e-01, 1.40388757e-01,
          2.80452445e-02, 4.49829036e-04, 3.94211202e-06, 0., 0.,
          1.45816147e-01, 1.45880833e-01, 1.45883113e-01, 1.45852864e-01,
          1.45699203e-01, 1.44430041e-01, 1.18454754e-01, 7.98303541e-03,
          0., 0. ]
      - [ 1.21707179e-01, 2.90630788e-01, 3.10862273e-01, 1.97123840e-01,
          6.89728037e-02, 1.02199074e-02, 4.74537024e-04, 8.68055577e-06,
          0., 0., 5.21443844e-01, 3.77311915e-01, 1.01160303e-01,
          8.39120403e-05, 0., 0., 0., 0., 0., 0., 8.17506537e-02,
          2.12642759e-01, 2.68862426e-01, 2.34369278e-01, 1.71366513e-01,
          3.05865277e-02, 4.15179034e-04, 6.65743300e-06, 0., 0.,
          1.44962177e-01, 1.45031378e-01, 1.45034626e-01, 1.45007730e-01,
          1.44871250e-01, 1.43675447e-01, 1.19829424e-01, 1.15879625e-02,
          0., 0. ]
      - [ 1.65758103e-01, 3.49247694e-01, 2.97479749e-01, 1.42392933e-01,
          3.89785878e-02, 5.72337955e-03, 4.10879642e-04, 8.68055577e-06,
          0., 0., 4.93501157e-01, 4.00167823e-01, 1.06276043e-01,
          5.49768520e-05, 0., 0., 0., 0., 0., 0., 1.19241752e-01,
          2.78784543e-01, 2.83741862e-01, 1.94111705e-01, 1.12408482e-01,
          1.13857565e-02, 3.20246181e-04, 5.65198161e-06, 0., 0.,
          1.45632192e-01, 1.45678341e-01, 1.45671085e-01, 1.45617798e-01,
          1.45347163e-01, 1.43217728e-01, 1.17196694e-01, 1.16389822e-02,
          0., 0. ]
      - [ 6.88794434e-01, 1.60672501e-01, 7.85980225e-02, 4.22108956e-02,
          2.16522217e-02, 6.87408447e-03, 1.19781494e-03, 0., 0., 0.,
          6.17472343e-02, 9.38242614e-01, 1.01725263e-05, 0., 0., 0., 0.,
          0., 0., 0., 3.70870054e-01, 1.36709020e-01, 1.68536931e-01,
          1.25431240e-01, 1.36428475e-01, 5.28154261e-02, 9.20884125e-03,
          0., 0., 0., 1.44914687e-01, 1.44845575e-01, 1.44751564e-01,
          1.44593179e-01, 1.44269422e-01, 1.42857522e-01, 1.33768052e-01,
          0., 0., 0. ]
      - [ 7.10037231e-01, 1.40780136e-01, 7.63727799e-02, 4.56314087e-02,
          2.04010010e-02, 6.19252538e-03, 5.84920228e-04, 0., 0., 0.,
          5.77621460e-02, 9.42237854e-01, 0., 0., 0., 0., 0., 0., 0., 0.,
          3.98373604e-01, 1.33027002e-01, 1.28426805e-01, 1.38918906e-01,
          1.42882213e-01, 5.33124022e-02, 5.05906949e-03, 0., 0., 0.,
          1.46416217e-01, 1.46332890e-01, 1.46245345e-01, 1.46116629e-01,
          1.45722538e-01, 1.44109681e-01, 1.25056699e-01, 0., 0., 0. ]
      - [ 8.20523560e-01, 9.10237655e-02, 4.45454903e-02, 3.00089512e-02,
          1.09608965e-02, 2.77709961e-03, 1.60217285e-04, 0., 0., 0.,
          3.12856026e-02, 9.68714416e-01, 0., 0., 0., 0., 0., 0., 0., 0.,
          4.47607547e-01, 1.10273153e-01, 1.23431712e-01, 1.33429930e-01,
          1.38425827e-01, 4.42752317e-02, 2.55660573e-03, 0., 0., 0.,
          1.52301416e-01, 1.52152821e-01, 1.51978791e-01, 1.51814073e-01,
          1.50942862e-01, 1.47025749e-01, 9.37842876e-02, 0., 0., 0. ]
      - [ 8.10387731e-01, 5.90972230e-02, 6.02083318e-02, 4.15567122e-02,
          1.71846058e-02, 8.77893530e-03, 2.67071766e-03, 1.15740739e-04,
          0., 0., 1.03793405e-01, 8.93365145e-01, 2.84143514e-03, 0., 0.,
          0., 0., 0., 0., 0., 4.37081605e-01, 1.15591638e-01,
          1.74222648e-01, 1.53172761e-01, 6.77118301e-02, 4.07798849e-02,
          1.11884205e-02, 2.51219899e-04, 0., 0., 1.33718580e-01,
          1.33509174e-01, 1.33513331e-01, 1.33414045e-01, 1.32961363e-01,
          1.32228881e-01, 1.28908351e-01, 7.17462897e-02, 0., 0. ]
      - [ 8.80554199e-01, 8.42539445e-02, 2.75828037e-02, 5.51859522e-03,
          1.96838379e-03, 1.22070312e-04, 0., 0., 0., 0., 1.39465332e-02,
          9.86053467e-01, 0., 0., 0., 0., 0., 0., 0., 0., 4.87751395e-01,
          1.30909905e-01, 2.35336393e-01, 7.69631565e-02, 6.46781847e-02,
          4.36095567e-03, 0., 0., 0., 0., 1.82506457e-01, 1.82310805e-01,
          1.81867838e-01, 1.79278567e-01, 1.73702568e-01, 1.00333765e-01,
          0., 0., 0., 0. ]
      - [ 1.95376158e-01, 3.90833348e-01, 2.81565398e-01, 1.08046874e-01,
          2.17129625e-02, 2.36979173e-03, 9.25925924e-05, 2.89351851e-06,
          0., 0., 4.62841421e-01, 4.33159709e-01, 1.03975691e-01,
          2.31481481e-05, 0., 0., 0., 0., 0., 0., 1.47071466e-01,
          3.35534751e-01, 2.97177970e-01, 1.40283659e-01, 7.75676072e-02,
          2.29024421e-03, 7.22173063e-05, 2.09582754e-06, 0., 0.,
          1.54677197e-01, 1.54716775e-01, 1.54701412e-01, 1.54613256e-01,
          1.54046893e-01, 1.48490399e-01, 7.44020939e-02, 4.35197866e-03,
          0., 0. ]
      - [ 8.49861145e-01, 9.33100358e-02, 3.22189331e-02, 1.42033892e-02,
          7.31913233e-03, 2.59908033e-03, 4.83194977e-04, 5.08626317e-06,
          0., 0., 5.75485229e-02, 9.41174805e-01, 1.27665198e-03, 0., 0.,
          0., 0., 0., 0., 0., 4.03297335e-01, 2.37307057e-01,
          1.92541763e-01, 1.07555971e-01, 4.18746695e-02, 1.45421596e-02,
          2.85088830e-03, 3.01583586e-05, 0., 0., 1.46715090e-01,
          1.46575272e-01, 1.46278337e-01, 1.45706490e-01, 1.44754604e-01,
          1.41295969e-01, 1.21572271e-01, 7.10196840e-03, 0., 0. ]
      - [ 8.11652184e-01, 5.83015047e-02, 4.59924750e-02, 3.51475701e-02,
          2.41406243e-02, 1.69357639e-02, 7.67071778e-03, 1.59143514e-04,
          0., 0., 2.14678824e-01, 7.82329261e-01, 2.99189822e-03, 0., 0.,
          0., 0., 0., 0., 0., 5.79857945e-01, 6.86119422e-02,
          9.99776125e-02, 9.90264565e-02, 9.12073702e-02, 4.35162596e-02,
          1.77239943e-02, 7.84339572e-05, 0., 0., 1.31833225e-01,
          1.31623700e-01, 1.31563410e-01, 1.31475389e-01, 1.31305546e-01,
          1.31075501e-01, 1.30152717e-01, 8.09705257e-02, 0., 0. ]
      - [ 7.47534752e-01, 1.58859953e-01, 5.36950231e-02, 2.38310192e-02,
          1.02285882e-02, 5.02893515e-03, 8.21759284e-04, 0., 0., 0.,
          5.72540499e-02, 9.42745924e-01, 0., 0., 0., 0., 0., 0., 0., 0.,
          4.45188850e-01, 1.72509789e-01, 1.56809822e-01, 9.91290957e-02,
          7.53338709e-02, 4.38580215e-02, 7.17054773e-03, 0., 0., 0.,
          1.45848081e-01, 1.45775825e-01, 1.45596445e-01, 1.45258054e-01,
          1.44455329e-01, 1.43023580e-01, 1.30042687e-01, 0., 0., 0. ]
      - [ 8.17274332e-01, 1.10442705e-01, 4.46209498e-02, 1.78559031e-02,
          6.96180575e-03, 2.52604159e-03, 3.18287028e-04, 0., 0., 0.,
          3.66869196e-02, 9.63313103e-01, 0., 0., 0., 0., 0., 0., 0., 0.,
          4.66422886e-01, 1.20052703e-01, 1.82437301e-01, 1.10381380e-01,
          8.19915831e-02, 3.43819372e-02, 4.33220249e-03, 0., 0., 0.,
          1.49238661e-01, 1.49121895e-01, 1.48923174e-01, 1.48425683e-01,
          1.47143349e-01, 1.43573195e-01, 1.13574028e-01, 0., 0., 0. ]
      - [ 7.11952209e-01, 1.35609940e-01, 8.10292587e-02, 4.07409668e-02,
          1.98389683e-02, 8.16345215e-03, 2.53041578e-03, 1.34785965e-04,
          0., 0., 1.66636154e-01, 8.19046021e-01, 1.43178301e-02, 0., 0.,
          0., 0., 0., 0., 0., 3.63173336e-01, 2.20576912e-01,
          2.14681461e-01, 1.28941804e-01, 5.13345189e-02, 1.61404572e-02,
          4.91381576e-03, 2.37672095e-04, 0., 0., 1.33059338e-01,
          1.32979974e-01, 1.32914007e-01, 1.32752195e-01, 1.32410601e-01,
          1.31467596e-01, 1.28018826e-01, 7.63974637e-02, 0., 0. ]
      - [ 7.65080750e-01, 1.27680466e-01, 5.82071953e-02, 2.54186001e-02,
          1.42288208e-02, 7.03684473e-03, 2.18963623e-03, 1.57674149e-04,
          0., 0., 1.24671936e-01, 8.66877258e-01, 8.45082570e-03, 0., 0.,
          0., 0., 0., 0., 0., 3.84647906e-01, 2.47533321e-01,
          2.08287179e-01, 9.37320516e-02, 4.15868945e-02, 1.80648621e-02,
          5.74813923e-03, 3.99647804e-04, 0., 0., 1.32596344e-01,
          1.32509902e-01, 1.32386237e-01, 1.32094011e-01, 1.31688178e-01,
          1.30755529e-01, 1.26821771e-01, 8.11480284e-02, 0., 0. ]
      - [ 7.68079102e-01, 1.28926590e-01, 5.65363578e-02, 2.51744594e-02,
          1.31734209e-02, 6.08571386e-03, 1.91497803e-03, 1.09354653e-04,
          0., 0., 1.19366966e-01, 8.72741699e-01, 7.89133739e-03, 0., 0.,
          0., 0., 0., 0., 0., 3.84886384e-01, 2.51922905e-01,
          2.05281183e-01, 9.51359048e-02, 3.99593301e-02, 1.68454573e-02,
          5.68078225e-03, 2.88037380e-04, 0., 0., 1.34348020e-01,
          1.34261385e-01, 1.34128273e-01, 1.33833885e-01, 1.33353218e-01,
          1.32193327e-01, 1.27697185e-01, 7.01847076e-02, 0., 0. ]
      - [ 7.64394104e-01, 1.27487183e-01, 5.92371635e-02, 2.57263184e-02,
          1.41042070e-02, 6.83848048e-03, 2.07773852e-03, 1.34785965e-04,
          0., 0., 1.25376388e-01, 8.65816772e-01, 8.80686473e-03, 0., 0.,
          0., 0., 0., 0., 0., 3.83166134e-01, 2.48529762e-01,
          2.08678678e-01, 9.41569880e-02, 4.20001969e-02, 1.76216289e-02,
          5.51608298e-03, 3.30517301e-04, 0., 0., 1.33311689e-01,
          1.33224621e-01, 1.33104429e-01, 1.32812873e-01, 1.32390469e-01,
          1.31407544e-01, 1.27206758e-01, 7.65416101e-02, 0., 0. ]
      - [ 3.89044195e-01, 1.78088382e-01, 1.71221927e-01, 1.36624143e-01,
          8.79119858e-02, 3.07159424e-02, 6.18896494e-03, 2.04467768e-04,
          0., 0., 3.74310315e-01, 5.88250756e-01, 3.74298096e-02,
          9.15527380e-06, 0., 0., 0., 0., 0., 0., 2.41574645e-01,
          1.68942794e-01, 2.01820388e-01, 1.86670423e-01, 1.43857986e-01,
          5.11249602e-02, 5.85559709e-03, 1.53211411e-04, 0., 0.,
          1.30700007e-01, 1.30660236e-01, 1.30657300e-01, 1.30637988e-01,
          1.30585060e-01, 1.30309373e-01, 1.28654823e-01, 8.77951980e-02,
          0., 0. ]
      - [ 1.13891780e-01, 2.72951394e-01, 3.06600124e-01, 2.10781246e-01,
          8.16753507e-02, 1.34982634e-02, 5.93171280e-04, 8.68055577e-06,
          0., 0., 5.29441535e-01, 3.73958319e-01, 9.65393484e-02,
          6.07638904e-05, 0., 0., 0., 0., 0., 0., 7.59277269e-02,
          1.99535266e-01, 2.63852149e-01, 2.50320166e-01, 1.91047579e-01,
          1.86550133e-02, 6.55216572e-04, 6.87296551e-06, 0., 0.,
          1.44277915e-01, 1.44351706e-01, 1.44357517e-01, 1.44336119e-01,
          1.44228011e-01, 1.43342659e-01, 1.23572141e-01, 1.15339132e-02,
          0., 0. ]
      - [ 1.14623845e-01, 2.78185755e-01, 3.07352424e-01, 2.07734376e-01,
          7.89814815e-02, 1.25202546e-02, 5.96064841e-04, 5.78703703e-06,
          0., 0., 5.25379062e-01, 3.76776606e-01, 9.77864563e-02,
          5.78703693e-05, 0., 0., 0., 0., 0., 0., 7.72769377e-02,
          2.05687836e-01, 2.67204762e-01, 2.44130120e-01, 1.77306965e-01,
          2.77937204e-02, 5.95095218e-04, 4.56310181e-06, 0., 0.,
          1.44805104e-01, 1.44879356e-01, 1.44884303e-01, 1.44861713e-01,
          1.44748166e-01, 1.43783033e-01, 1.24109894e-01, 7.92841613e-03,
          0., 0. ]
      - [ 1.42184600e-01, 3.30104172e-01, 3.14855337e-01, 1.63402781e-01,
          4.41956036e-02, 5.08101843e-03, 1.73611115e-04, 2.89351851e-06,
          0., 0., 5.06174743e-01, 3.85422468e-01, 1.08353585e-01,
          4.91898136e-05, 0., 0., 0., 0., 0., 0., 1.02117844e-01,
          2.61248738e-01, 2.94033825e-01, 2.30088919e-01, 1.00965530e-01,
          1.13820080e-02, 1.60878611e-04, 2.25501640e-06, 0., 0.,
          1.50515929e-01, 1.50576174e-01, 1.50573969e-01, 1.50529668e-01,
          1.50281757e-01, 1.47714600e-01, 9.55722034e-02, 4.23570815e-03,
          0., 0. ]
      - [ 1.58671871e-01, 3.43020827e-01, 3.00570011e-01, 1.50781244e-01,
          4.15306725e-02, 5.09837968e-03, 3.18287028e-04, 8.68055577e-06,
          0., 0., 5.07803798e-01, 3.85688663e-01, 1.06446758e-01,
          6.07638904e-05, 0., 0., 0., 0., 0., 0., 1.13183312e-01,
          2.70461291e-01, 2.81816632e-01, 1.77837402e-01, 1.51241094e-01,
          5.21060918e-03, 2.43005736e-04, 6.66379538e-06, 0., 0.,
          1.46594405e-01, 1.46644041e-01, 1.46638006e-01, 1.46589577e-01,
          1.46334440e-01, 1.43865004e-01, 1.11618340e-01, 1.17161972e-02,
          0., 0. ]
      - [ 8.90909806e-02, 2.28747055e-01, 3.08733612e-01, 2.58666992e-01,
          1.00634255e-01, 1.38270063e-02, 3.00089509e-04, 0., 0., 0.,
          5.01874268e-01, 4.08889771e-01, 8.92333984e-02, 2.54313159e-06,
          0., 0., 0., 0., 0., 0., 6.51658997e-02, 1.79991543e-01,
          2.83186644e-01, 2.97904819e-01, 1.52084813e-01, 2.13545728e-02,
          3.11721989e-04, 0., 0., 0., 1.48210078e-01, 1.48311600e-01,
          1.48328394e-01, 1.48319095e-01, 1.48229137e-01, 1.47311047e-01,
          1.11290626e-01, 0., 0., 0. ]
      - [ 9.88723218e-01, 1.06447749e-02, 6.32002484e-04, 0., 0., 0., 0.,
          0., 0., 0., 2.11770472e-04, 9.99788225e-01, 0., 0., 0., 0., 0.,
          0., 0., 0., 6.83668971e-01, 1.95899978e-01, 1.20431028e-01, 0.,
          0., 0., 0., 0., 0., 0., 3.50352377e-01, 3.47126812e-01,
          3.02520782e-01, 0., 0., 0., 0., 0., 0., 0. ]
      - [ 7.65725613e-01, 1.67358235e-01, 4.42931168e-02, 2.21564844e-02,
          4.66556812e-04, 0., 0., 0., 0., 0., 1.20080477e-02,
          9.87991929e-01, 0., 0., 0., 0., 0., 0., 0., 0., 3.96557719e-01,
          1.01984717e-01, 8.21421668e-02, 4.03492004e-01, 1.58234034e-02,
          0., 0., 0., 0., 0., 2.07613140e-01, 2.07516268e-01,
          2.07172528e-01, 2.06707314e-01, 1.70990750e-01, 0., 0., 0., 0.,
          0. ]
      - [ 8.18618596e-01, 1.04260556e-01, 5.25455475e-02, 2.36090980e-02,
          9.66202759e-04, 0., 0., 0., 0., 0., 1.28617473e-02,
          9.87138271e-01, 0., 0., 0., 0., 0., 0., 0., 0., 4.19388503e-01,
          6.80600554e-02, 8.56471136e-02, 3.93533498e-01, 3.33708338e-02,
          0., 0., 0., 0., 0., 2.04097882e-01, 2.03927219e-01,
          2.03735083e-01, 2.03261867e-01, 1.84977964e-01, 0., 0., 0., 0.,
          0. ]
      - [ 2.40130112e-01, 3.72194916e-01, 2.21183777e-01, 1.07142128e-01,
          4.40012626e-02, 1.26241045e-02, 2.57619214e-03, 1.47501632e-04,
          0., 0., 4.49175507e-01, 4.73681122e-01, 7.71230087e-02,
          2.03450527e-05, 0., 0., 0., 0., 0., 0., 1.75517768e-01,
          3.31787318e-01, 2.42320821e-01, 1.39104888e-01, 7.52284676e-02,
          3.38997915e-02, 2.04033731e-03, 1.00604746e-04, 0., 0.,
          1.32458359e-01, 1.32477924e-01, 1.32453635e-01, 1.32389948e-01,
          1.32213041e-01, 1.31472081e-01, 1.27561942e-01, 7.89730549e-02,
          0., 0. ]
      - [ 2.42406204e-01, 3.87621552e-01, 2.30728149e-01, 9.67966691e-02,
          3.23003121e-02, 8.66444875e-03, 1.46230066e-03, 2.03450527e-05,
          0., 0., 4.36131805e-01, 4.84634399e-01, 7.92134628e-02,
          2.03450527e-05, 0., 0., 0., 0., 0., 0., 1.77206889e-01,
          3.44896495e-01, 2.59796500e-01, 1.44325614e-01, 6.45507127e-02,
          8.11062381e-03, 1.09917426e-03, 1.39879467e-05, 0., 0.,
          1.41017064e-01, 1.41038850e-01, 1.41014114e-01, 1.40929639e-01,
          1.40639827e-01, 1.39465615e-01, 1.32045269e-01, 2.38496140e-02,
          0., 0. ]
      - [ 8.19051087e-01, 1.23972572e-01, 4.20583077e-02, 1.06735229e-02,
          3.12550855e-03, 1.06048584e-03, 5.84920235e-05, 0., 0., 0.,
          3.29767875e-02, 9.67023194e-01, 0., 0., 0., 0., 0., 0., 0., 0.,
          5.01457453e-01, 1.77128285e-01, 1.87777221e-01, 7.65152499e-02,
          4.01804857e-02, 1.60557665e-02, 8.85569840e-04, 0., 0., 0.,
          1.60254881e-01, 1.60145268e-01, 1.59894273e-01, 1.58786774e-01,
          1.55305490e-01, 1.46463469e-01, 5.91498353e-02, 0., 0., 0. ]
      - [ 8.39294434e-01, 1.19425453e-01, 3.71678658e-02, 3.81724047e-03,
          2.95003265e-04, 0., 0., 0., 0., 0., 1.66422520e-02,
          9.83357728e-01, 0., 0., 0., 0., 0., 0., 0., 0., 4.93454486e-01,
          2.17409655e-01, 2.26757169e-01, 5.35417087e-02, 8.83698277e-03,
          0., 0., 0., 0., 0., 2.11943775e-01, 2.11791694e-01,
          2.11400256e-01, 2.06557855e-01, 1.58306420e-01, 0., 0., 0., 0.,
          0. ]
      - [ 9.70252991e-01, 2.87475586e-02, 9.99450684e-04, 0., 0., 0., 0.,
          0., 0., 0., 6.48244238e-03, 9.93517578e-01, 0., 0., 0., 0., 0.,
          0., 0., 0., 4.92004693e-01, 4.95692670e-01, 1.23026390e-02, 0.,
          0., 0., 0., 0., 0., 0., 3.44142228e-01, 3.42984587e-01,
          3.12873185e-01, 0., 0., 0., 0., 0., 0., 0. ]
      - [ 9.68724549e-01, 3.01615391e-02, 1.11389160e-03, 0., 0., 0., 0.,
          0., 0., 0., 6.47735596e-03, 9.93522644e-01, 0., 0., 0., 0., 0.,
          0., 0., 0., 4.91230041e-01, 4.91174847e-01, 1.75951235e-02, 0.,
          0., 0., 0., 0., 0., 0., 3.43110442e-01, 3.42011929e-01,
          3.14877629e-01, 0., 0., 0., 0., 0., 0., 0. ]
      - [ 8.38171363e-01, 1.26846313e-01, 2.50793453e-02, 9.83886700e-03,
          6.40869112e-05, 0., 0., 0., 0., 0., 7.41577148e-03,
          9.92584229e-01, 0., 0., 0., 0., 0., 0., 0., 0., 4.25226033e-01,
          6.57416433e-02, 1.11300558e-01, 3.95670831e-01, 2.06095888e-03,
          0., 0., 0., 0., 0., 2.28511423e-01, 2.28358656e-01,
          2.27631047e-01, 2.26239234e-01, 8.92596394e-02, 0., 0., 0., 0.,
          0. ]
      - [ 8.32479835e-01, 1.29547119e-01, 2.75726318e-02, 1.03240963e-02,
          7.62939453e-05, 0., 0., 0., 0., 0., 7.62634259e-03,
          9.92373645e-01, 0., 0., 0., 0., 0., 0., 0., 0., 4.23333049e-01,
          6.74683526e-02, 1.16152033e-01, 3.89654815e-01, 3.39175737e-03,
          0., 0., 0., 0., 0., 2.26285398e-01, 2.26138026e-01,
          2.25494757e-01, 2.24141523e-01, 9.79402885e-02, 0., 0., 0., 0.,
          0. ]
      - [ 8.03535461e-01, 6.07757568e-02, 5.77138253e-02, 4.22515869e-02,
          2.52278652e-02, 8.75345897e-03, 1.69372559e-03, 4.83194999e-05,
          0., 0., 1.11038208e-01, 8.84867370e-01, 4.09444189e-03, 0., 0.,
          0., 0., 0., 0., 0., 4.58901584e-01, 9.84650925e-02,
          1.50200188e-01, 1.39158592e-01, 1.09965220e-01, 3.80500033e-02,
          5.20061469e-03, 5.87042523e-05, 0., 0., 1.37934253e-01,
          1.37724802e-01, 1.37712806e-01, 1.37625694e-01, 1.37406752e-01,
          1.36393249e-01, 1.30260646e-01, 4.49417867e-02, 0., 0. ]
      - [ 9.11191285e-01, 6.97555542e-02, 1.50553389e-02, 3.25520826e-03,
          6.35782897e-04, 9.91821289e-05, 7.62939453e-06, 0., 0., 0.,
          1.96050014e-02, 9.80028808e-01, 3.66210938e-04, 0., 0., 0., 0.,
          0., 0., 0., 4.16363537e-01, 2.45611176e-01, 2.43932217e-01,
          7.22801089e-02, 1.63961872e-02, 5.36851212e-03, 4.82855248e-05,
          0., 0., 0., 1.85337186e-01, 1.85092181e-01, 1.84134483e-01,
          1.79833055e-01, 1.60165653e-01, 9.22982097e-02, 1.31392153e-02,
          0., 0., 0. ]
      - [ 9.21997070e-01, 6.51397705e-02, 1.07650757e-02, 1.74204505e-03,
          3.10262054e-04, 4.06901054e-05, 5.08626317e-06, 0., 0., 0.,
          1.08947754e-02, 9.88932312e-01, 1.72932938e-04, 0., 0., 0., 0.,
          0., 0., 0., 4.30925637e-01, 2.81447709e-01, 2.08332241e-01,
          5.07770404e-02, 2.38172822e-02, 4.52383561e-03, 1.76270740e-04,
          0., 0., 0., 1.98835418e-01, 1.98552176e-01, 1.97026744e-01,
          1.88061535e-01, 1.50386259e-01, 5.75130098e-02, 9.62484442e-03,
          0., 0., 0. ]
      - [ 8.77151489e-01, 9.14586410e-02, 2.13851929e-02, 6.43412257e-03,
          2.50244141e-03, 8.85009766e-04, 1.83105469e-04, 0., 0., 0.,
          1.83512364e-02, 9.81447875e-01, 2.00907394e-04, 0., 0., 0., 0.,
          0., 0., 0., 3.92527223e-01, 2.31437162e-01, 2.19767198e-01,
          7.84522295e-02, 5.34562133e-02, 2.08354406e-02, 3.52451717e-03,
          0., 0., 0., 1.54168680e-01, 1.54017851e-01, 1.53468609e-01,
          1.51826546e-01, 1.48261577e-01, 1.38532981e-01, 9.97237712e-02,
          0., 0., 0. ]
      - [ 9.42929566e-01, 4.73403931e-02, 8.03375244e-03, 1.41906738e-03,
          2.39054367e-04, 3.30607108e-05, 5.08626317e-06, 0., 0., 0.,
          1.05845137e-02, 9.89214599e-01, 2.00907394e-04, 0., 0., 0., 0.,
          0., 0., 0., 4.39668387e-01, 2.63154685e-01, 2.22054571e-01,
          5.40657416e-02, 1.69779118e-02, 3.89960990e-03, 1.79083072e-04,
          0., 0., 0., 2.03164905e-01, 2.02758148e-01, 2.00688392e-01,
          1.89810723e-01, 1.43259048e-01, 5.04843853e-02, 9.83439386e-03,
          0., 0., 0. ]
   decision_functions:
      -
         sv_count: 98
         rho: -6.7581383870431466e+01
         alpha: [ -1.3005064462418509e+03, -8.5022873242995146e+01,
             -8.2411067885826924e+01, -1.5996164842369583e+02,
             -6.1706821125210547e+02, -5.8282422829213992e+03,
             -7.7310252049151222e+02, -8.4653981642059122e+01,
             -8.8274157771661820e+01, -16384., -1.1124684516016412e+04,
             -5.7003161614936425e+03, 1.8247235629311699e+03,
             2.4597149226021321e+02, -2.2243015610718800e+02,
             -8.1421249471801559e+01, -1.4961547921267399e+02,
             -2.6756966931151578e+02, -5.8593480048134984e+02,
             -6.4659380949024307e+02, -8.6857326428808634e+01,
             -8.2298214465984017e+01, -7.9475213812782513e+01,
             -2.3818193727739850e+02, -4.6416809528687935e+02,
             -1.6322269594548763e+02, 5.0487522688732548e+02,
             8.9459847971846955e+01, 1.0288259236401706e+02,
             9.8659365194316877e+01, 9.4345264468546659e+01,
             -4.3943482007334649e+02, 3.8886963819890599e+02,
             3.9465139721220243e+02, 1.4417135037391870e+03,
             -9.2896416650742381e+01, -7.1114276057149709e+02,
             -1.1354360492979226e+03, -2.2504427852087069e+03,
             2.5853047558552731e+02, 8.3971903486005729e+01,
             8.3890010181363749e+01, -7.7464263884652908e+01,
             -1.3650228982917906e+03, -2.4842429564057056e+03,
             -3.5270158422512117e+02, -6.1861298927551761e+03,
             -9.4816793559659732e+02, -1.6189131968986305e+02,
             -3.4075947494738273e+02, 9.6587716014604467e+01,
             8.6656363080055769e+01, 4.9043849131967081e+03,
             2.6693572621935050e+02, -1.7350364470268573e+02,
             -8.7996141085379023e+01, 5.4059149977622235e+02,
             3.6453840067151441e+03, -6.2673253815589669e+03,
             -8.0951340846395240e+01, -1.3134980948936804e+04,
             -9.6841779965467333e+02, 1.0273332778499844e+02,
             8.7121531878154457e+01, 2.7194700346085256e+02,
             -8.7080964424164875e+01, -7.9263811047317677e+02,
             -1.8136091293405798e+03, -8.4136037710224599e+01,
             -2.5853047558552731e+02, -8.3707919554403418e+01,
             -8.1670797829613605e+01, 1.3957666237686967e+03,
             9.8374695621165356e+03, 16384., 7.5098608038852135e+03,
             1.4961547921267399e+02, 3.0553564838232232e+03, 16384.,
             6.3207913035678021e+03, 5.3067799948739539e+03,
             -2.0079472505404915e+03, -5.5071293679830745e+01,
             1.5075380363740672e+02, 1.6322269594548763e+02,
             -1.1039467646268696e+02, -1.6314466550740784e+02,
             3.1547778585035294e+03, 1.3568656061752311e+03,
             7.6835610572822375e+01, 7.5458398822782442e+01,
             -9.6587716014604467e+01, -3.3113907266365754e+02,
             1.6859824572813864e+02, 3.1615320611977927e+02,
             5.4726927738784343e+02, 1.6131913716767332e+02,
             3.9079857892954118e+02 ]
